Language model created by QuickLM on Thu Dec 31 04:47:03 EST 2015
Copyright (c) 1996-2010 Carnegie Mellon University and Alexander I. Rudnicky

The model is in standard ARPA format, designed by Doug Paul while he was at MITRE.

The code that was used to produce this language model is available in Open Source.
Please visit http://www.speech.cs.cmu.edu/tools/ for more information

The (fixed) discount mass is 0.5. The backoffs are computed using the ratio method.
This model based on a corpus of 6 sentences and 13 words

\data\
ngram 1=13
ngram 2=17
ngram 3=13

\1-grams:
-0.9379 </s> -0.3010
-0.9379 <s> -0.2478
-1.7160 CLOSE -0.2840
-1.4150 DOOR -0.2478
-1.7160 FIDO -0.2478
-1.7160 GENIE -0.2478
-1.4150 LIGHTS -0.2478
-1.7160 OFF -0.2840
-1.7160 ON -0.2840
-1.7160 OPEN -0.2840
-1.7160 SHUT -0.2926
-1.4150 THE -0.2840
-1.7160 TURN -0.2926

\2-grams:
-1.0792 <s> CLOSE 0.0000
-1.0792 <s> FIDO 0.0000
-1.0792 <s> GENIE 0.0000
-1.0792 <s> OPEN 0.0000
-1.0792 <s> SHUT 0.0000
-1.0792 <s> TURN 0.0000
-0.3010 CLOSE THE 0.0000
-0.3010 DOOR </s> -0.3010
-0.3010 FIDO </s> -0.3010
-0.3010 GENIE </s> -0.3010
-0.3010 LIGHTS </s> -0.3010
-0.3010 OFF LIGHTS 0.0000
-0.3010 ON LIGHTS 0.0000
-0.3010 OPEN THE 0.0000
-0.3010 SHUT OFF 0.0000
-0.3010 THE DOOR 0.0000
-0.3010 TURN ON 0.0000

\3-grams:
-0.3010 <s> CLOSE THE
-0.3010 <s> FIDO </s>
-0.3010 <s> GENIE </s>
-0.3010 <s> OPEN THE
-0.3010 <s> SHUT OFF
-0.3010 <s> TURN ON
-0.3010 CLOSE THE DOOR
-0.3010 OFF LIGHTS </s>
-0.3010 ON LIGHTS </s>
-0.3010 OPEN THE DOOR
-0.3010 SHUT OFF LIGHTS
-0.3010 THE DOOR </s>
-0.3010 TURN ON LIGHTS

\end\
